{
    "seed": 1241201153,
    "layer_neuron_counts": [
        22,
        12,
        8,
        3
    ],
    "num_layers": 4,
    "weights": [
        [
            [
                0.045669468624240324,
                -0.16331004264393867,
                0.2990454723588555,
                0.20472703654149868,
                0.2228816392570096,
                0.13697983539566078,
                0.03373131912145562,
                -0.45065444155909073,
                0.5176461898638536,
                -0.49387443930444225,
                -0.003496329212262569,
                -0.21823448114007368
            ],
            [
                0.18522294167696088,
                0.4248661413390574,
                -0.1868551126081169,
                -0.02677534801036012,
                -0.03310647924139091,
                0.14085117312807338,
                0.08468620530596713,
                -0.31115692691990454,
                -0.16718073004272693,
                0.0711488487547432,
                -0.07063573656453948,
                0.10801507633709469
            ],
            [
                -0.3355032719491648,
                0.5955185634099746,
                0.04400330239599587,
                0.02185360140324915,
                0.17067424876179285,
                0.13902579913064927,
                0.07375772595694395,
                0.3261357033478544,
                -0.310601601495186,
                0.17219619129473007,
                0.019026490840459657,
                -0.11288139351123834
            ],
            [
                -0.11791894173203961,
                -0.3189222994695237,
                0.07232014816137447,
                -0.0008263730014461953,
                0.20340779869329292,
                -0.2619071786650653,
                0.294638605923411,
                0.4923314501385631,
                0.008544116127640226,
                0.4667038273934734,
                0.304401629111903,
                -0.3133155914338533
            ],
            [
                -0.07129763619994016,
                -0.29000635727354035,
                -0.1505001579597504,
                -0.1144216512738163,
                0.03019332334347773,
                -0.00012423829726640817,
                -0.2176733366659403,
                0.6705382000926544,
                -0.48562636757127114,
                0.7086606615089753,
                0.456218792203384,
                0.024067887477457608
            ],
            [
                -0.22947724791827157,
                -0.17049788753528564,
                -0.07143819354277027,
                0.18964922013520497,
                -0.19008223718215422,
                -0.24399796092149914,
                -0.029805149036460137,
                0.11901562682562936,
                0.3877670675797312,
                0.04952783989425273,
                0.3077722550831164,
                0.2912278438331588
            ],
            [
                -0.012386039219632715,
                -0.06840025412288839,
                0.6748005313870069,
                -0.2425733189185089,
                -0.21855028098132587,
                -0.002898177950590547,
                0.10842217960220454,
                0.2978695063609609,
                -0.15803023260203566,
                -0.4025534848696289,
                -0.4132611472533537,
                -0.1620711538376274
            ],
            [
                -0.20611686256930878,
                -0.2797111386795955,
                0.3354603336765436,
                -0.3047839604851257,
                -0.2582280184256692,
                -0.0020628937643929596,
                -0.07514230916776252,
                0.33989154963754314,
                0.01282574362094931,
                -0.37310400272761174,
                0.008840347893361822,
                0.005214385043417265
            ],
            [
                0.1364800003431778,
                0.506923615883831,
                -0.0032926728672863057,
                0.24402419408724205,
                -0.009599912235060555,
                0.3474059047662771,
                -0.2840173574770928,
                -0.3725333547069,
                -0.12892506641091556,
                -0.27329357705750135,
                -0.1531462142755531,
                -0.24739189028281672
            ],
            [
                -0.36228757095726705,
                -0.21921122044762795,
                0.05321950010150256,
                -0.20768634675211192,
                -0.023451673258581017,
                -0.16621070933013385,
                0.2351085513359112,
                0.6180785309402516,
                -0.5135122565652567,
                0.24825108926902262,
                0.07618239929769564,
                -0.05166162226642711
            ],
            [
                -0.13380520280525024,
                0.45709160412587113,
                -0.33296777467857713,
                0.01143888863112542,
                -0.2075909639824827,
                0.24662820315926495,
                0.2573083469975702,
                0.05232546512974788,
                0.15149710246787598,
                0.08613309141328465,
                0.3678558466229802,
                0.040138078139806674
            ],
            [
                0.1313965485024886,
                0.10468227811326657,
                -0.2651033553127045,
                0.32288229022079173,
                0.1614147244740014,
                0.009498016429930872,
                -0.06351237781474306,
                0.07778934258883266,
                0.8622472195855188,
                -0.0813648477897088,
                -0.015499228355926788,
                -0.2533267775166303
            ],
            [
                0.29928766360824005,
                -0.2919381294905972,
                0.38768414700125875,
                0.16261755217674012,
                0.04266105577495242,
                -0.07960312624361708,
                -0.05945762671013251,
                0.09873713504781154,
                0.4091055767806193,
                0.23555691068788331,
                0.27911920193324413,
                -0.3075840103317475
            ],
            [
                0.15075462226878794,
                0.3315608297566587,
                0.007639465362050398,
                0.12071865269977358,
                -0.20458456536482234,
                0.43847176280231326,
                -0.1872071564247974,
                0.02364589892980035,
                -0.2239701355722974,
                0.3019481760710437,
                0.035881248754560294,
                0.2194989251312247
            ],
            [
                0.11277559390688664,
                0.08813056936849999,
                0.22895856377767557,
                -0.247327281194656,
                0.19591817786835525,
                0.22049249538077897,
                -0.2590126455983451,
                0.04263527037751524,
                0.48593723421743434,
                -0.02787939002448237,
                0.12596184196102078,
                -0.04594132250512761
            ],
            [
                -0.1961442403203994,
                -0.12842283640204463,
                -0.1964240533862524,
                0.20621128220883334,
                -0.08260315475731339,
                -0.2808406462645638,
                -0.030991511634079778,
                0.4524624335171632,
                -0.3278292301178555,
                0.2901285809277342,
                0.3415751764101599,
                0.2731636732532048
            ],
            [
                -0.2965393339595133,
                -0.2593890503381106,
                0.1426305965509468,
                0.005159435223464212,
                -0.10008262455832526,
                -0.16971888060322846,
                -0.1599396174930741,
                -0.06582992836931208,
                0.5288469695937827,
                -0.037795078586054645,
                0.013924547983477899,
                -0.20420538096802315
            ],
            [
                -0.22583021373709344,
                0.135422831111059,
                -0.14415299355653832,
                0.08974262457703067,
                0.16401900042887016,
                0.1531560513692163,
                0.04759512832232495,
                0.3892362426526115,
                -0.2612255940855974,
                0.21627193420577823,
                0.015099647775721106,
                -0.1606676233551928
            ],
            [
                0.00358901324983936,
                -0.06549537803565665,
                -0.09908712869599111,
                0.25921902068387187,
                -0.12509539364161748,
                -0.21773576704840175,
                -0.0038149050042889663,
                -0.3489334484727422,
                0.7589473606200718,
                -0.4005845754852567,
                0.03908977378295903,
                -0.2790296139542985
            ],
            [
                0.39868814755226184,
                0.3073965166048847,
                -0.16682571697792656,
                0.0699826671543329,
                -0.22466058005625936,
                0.05374853329828697,
                0.031407769977743596,
                0.08127478598105392,
                0.015717440545172448,
                0.6453744955000261,
                0.13701317064634624,
                0.3289205284100925
            ],
            [
                -0.18641255259719366,
                0.20738118430186284,
                0.06048340084478093,
                -0.15293540354717539,
                0.05833085348876633,
                0.24018422808452491,
                0.22119990563350428,
                0.08583832249312662,
                -0.2048253873295816,
                -0.14014444631460693,
                0.05534079924636269,
                -0.022507560549411623
            ],
            [
                -0.18333408444044363,
                -0.050874534031436096,
                0.569365699652808,
                0.20111627215232125,
                0.0690960541004704,
                0.0025120348319970713,
                -0.0708624778331927,
                -0.07306664164492396,
                0.13038009461915379,
                0.20290724887661823,
                -0.06813622058950855,
                -0.031510406484783454
            ]
        ],
        [
            [
                0.33678569359190985,
                -0.2270924539013094,
                0.28425093960372844,
                -0.26796663110902696,
                -0.15609472946563313,
                0.16584646672741385,
                -0.35811774856403805,
                0.2937004495868537
            ],
            [
                -0.12433325462592516,
                0.1761524091926886,
                0.5544750479366646,
                -0.35882050784956604,
                -0.6296689472132303,
                0.5759380764372242,
                0.6761211132633344,
                -0.37289066082279176
            ],
            [
                -0.386608710516428,
                0.30270706496206357,
                0.3847337923918371,
                0.5429800303568489,
                -0.5104093056966432,
                0.34807973899953387,
                -0.4815258363984521,
                -0.40154542682911054
            ],
            [
                -0.22539314749972184,
                0.051897224462807846,
                0.05003272452711241,
                -0.263578774535033,
                0.2617905825804057,
                0.12712501004208263,
                0.20949836180890888,
                0.3545489872779004
            ],
            [
                -0.1381496823711106,
                -0.03140465760271799,
                -0.05751312276040222,
                -0.27230245401466063,
                0.061986206086392305,
                -0.14513190118528954,
                -0.02139967801265865,
                0.36528328170228486
            ],
            [
                0.1030873065003144,
                -0.3600262150072115,
                -0.20588072398178656,
                -0.22470552253493883,
                0.018889329635494674,
                0.6173547945984735,
                0.5518711481192284,
                0.3058343426381355
            ],
            [
                0.09133893095162053,
                -0.08027005133256547,
                -0.433827150182323,
                -0.36536012154902753,
                0.06299082167778912,
                0.18983132885098827,
                0.4037351045788495,
                -0.35033985954390523
            ],
            [
                -0.027658151479120777,
                0.9780244021024312,
                -0.4472378139855125,
                0.5966560953639737,
                0.24440030936547663,
                -0.4725623719920021,
                0.5028255630952635,
                -0.42729360319178494
            ],
            [
                0.039999199601685104,
                -0.428881876787417,
                0.908291438129175,
                0.13778684832573432,
                0.8558785592600333,
                0.5972387450825841,
                -0.3258968895074205,
                1.2030518307915237
            ],
            [
                0.17059244658866662,
                1.1628921610585936,
                -0.16609780424246526,
                -0.3069275787832943,
                0.051258447825472564,
                -0.25992509973098304,
                0.7362835380318148,
                -0.04142838539168118
            ],
            [
                0.04451180601519913,
                0.47706385707523646,
                -0.05394013020375019,
                -0.21104526074155,
                0.5635882508744471,
                -0.2603125448835804,
                0.357347146306729,
                0.08563956395726152
            ],
            [
                0.14638837560625023,
                -0.3985650320104609,
                -0.042281689636677396,
                0.10354884045980074,
                -0.08405299082951996,
                0.420507369632356,
                -0.054127420272403914,
                0.18982389847274359
            ]
        ],
        [
            [
                0.13525440868080582,
                -0.30171524417603557,
                -0.2304209134774085
            ],
            [
                -0.3051839210573828,
                0.9602282909362294,
                -1.3291960947368195
            ],
            [
                0.3961189250381373,
                -1.0561325854129902,
                0.5372179747381244
            ],
            [
                0.7583299356923744,
                -0.2403620998396178,
                -0.4352973721439454
            ],
            [
                -1.1086752599048797,
                0.0838078133887371,
                0.4316129319537629
            ],
            [
                0.8877801797079459,
                -0.9364000003917403,
                0.4123734028854212
            ],
            [
                0.5580417565650237,
                0.6787260910786675,
                -0.946988525935727
            ],
            [
                -0.3806307677150347,
                -0.8490608429085437,
                0.9907609292346216
            ]
        ]
    ],
    "biases": [
        [
            0.10254993754300559,
            0.15973856761513372,
            0.18970800151739559,
            0.18362563015555305,
            3.992211364442518e-5,
            0.08937593356484183,
            -0.0271349224003018,
            0.2637088014658632,
            0.5349166084034371,
            0.3371966014895634,
            0.19345265854380037,
            0.041861119799783214
        ],
        [
            -0.08989035846199331,
            0.41404414209391094,
            0.4179636647816904,
            0.13357248525227292,
            0.07899078238223767,
            0.635710577073006,
            0.14323267433125875,
            0.14222987728665562
        ],
        [
            0.6049034654214787,
            -0.2345725716481348,
            -0.37033089377334105
        ]
    ],
    "activation_functions": [
        "relu",
        "relu",
        "softmax"
    ],
    "loss_function": "cross_entropy",
    "epoch": 10000
}